genomestart 3
trait 1 0.5672663394652188 0.9375324250213557 0 0 0.1173269933885011 0.8757797556835037 0 0
trait 2 0.515786417707973 0 0.9741080069830135 0.09682022833517126 0 0.9031957983577049 0.37499578774421105 0.407509042116579
trait 3 0.6971334179790858 0.37685072256497587 0 0.5690049083153054 0.3005760168555498 0 0 0
node 1 1 1 3 NullActivation
node 2 2 1 1 NullActivation
node 3 3 1 1 NullActivation
node 4 1 0 2 SigmoidSteepenedActivation
node 10 1 0 0 SigmoidSteepenedActivation
node 101 1 0 0 SigmoidSteepenedActivation
node 168 1 0 0 SigmoidSteepenedActivation
gene 1 1 4 -11.053651659793422 false 1 -11.053651659793422 true
gene 2 2 4 -3.0798645556966457 false 2 -3.0798645556966457 true
gene 3 3 4 12.357361870248475 false 3 12.357361870248475 true
gene 3 2 10 -13.185710109382754 false 13 -13.185710109382754 true
gene 3 10 4 0.7894273623103263 false 14 0.7894273623103263 true
gene 3 1 10 0.33743043965761615 false 32 0.33743043965761615 true
gene 3 3 10 3.4902593330965823 false 465 3.4902593330965823 true
gene 2 2 101 3.49731842406432 false 545 3.49731842406432 true
gene 2 101 4 20.97724621807374 false 546 20.97724621807374 true
gene 3 3 101 -9.013636813691733 false 579 -9.013636813691733 true
gene 2 10 101 -3.36638530440566 false 636 -3.36638530440566 true
gene 2 1 101 -0.7897049041848314 false 762 -0.7897049041848314 true
gene 3 3 168 2.383635163503104 false 902 2.383635163503104 true
gene 3 168 10 -0.07457328672735355 false 903 -0.07457328672735355 true
genomeend 3
