genomestart 90
trait 1 0.1422007325062531 0 0 0.3309226808522391 0 0.03399681113589122 0.05302262221005726 0
trait 2 0.2 0.859578117995662 0 0 0 0 0.02040998836129222 0
trait 3 0.3 0 0 0 0 0.770886170811635 0 0
node 1 1 1 3 NullActivation
node 2 1 1 1 NullActivation
node 3 1 1 1 NullActivation
node 4 1 0 2 SigmoidSteepenedActivation
node 13 1 0 0 SigmoidSteepenedActivation
node 15 1 0 0 SigmoidSteepenedActivation
node 30 1 0 0 SigmoidSteepenedActivation
node 49 1 0 0 SigmoidSteepenedActivation
node 114 1 0 0 SigmoidSteepenedActivation
node 121 1 0 0 SigmoidSteepenedActivation
gene 3 1 4 -2.530230328621728 false 1 -2.530230328621728 true
gene 2 2 4 -4.57069962549701 false 2 -4.57069962549701 true
gene 3 3 4 2.6565684597756922 false 3 2.6565684597756922 true
gene 3 2 13 1.5064425996500401 false 20 1.5064425996500401 true
gene 2 13 4 -0.9193788832661767 false 21 -0.9193788832661767 true
gene 2 2 15 7.046402451042323 false 29 7.046402451042323 true
gene 2 15 4 11.02720863366323 false 30 11.02720863366323 true
gene 2 3 15 -7.484801300876643 false 79 -7.484801300876643 true
gene 3 3 30 5.205727973462113 false 90 5.205727973462113 true
gene 3 30 4 -0.8849904077065383 false 91 -0.8849904077065383 true
gene 3 13 15 1.6210259033127816 false 204 1.6210259033127816 true
gene 2 2 49 -3.7859274139358665 false 213 -3.7859274139358665 true
gene 2 49 4 4.157284078118663 false 214 4.157284078118663 true
gene 1 3 49 0.16971773777403426 false 283 0.16971773777403426 true
gene 1 49 30 -0.5532803971138581 false 418 -0.5532803971138581 true
gene 2 3 114 3.8659835849398205 false 548 3.8659835849398205 true
gene 2 114 15 -13.467562529145635 false 549 -13.467562529145635 true
gene 2 2 121 -2.1868729589171436 false 581 -2.1868729589171436 true
gene 2 121 49 0.18327724256724431 false 582 0.18327724256724431 true
genomeend 90
