genomestart 104
trait 1 0.666766462378841 0 0 0.05194796410534477 0.19555045563370999 0.011239703347606378 0.3289240728073698 0.14297907455452463
trait 2 0.11653520216101458 0 0 0 0.027508764144276207 0 0 0.23696673689968514
trait 3 0.3 1.3232992935476706 0.37675922825792985 0.7459812414652953 0 0 0.25570477475182124 0
node 1 2 1 3 NullActivation
node 2 1 1 1 NullActivation
node 3 3 1 1 NullActivation
node 4 3 0 2 SigmoidSteepenedActivation
node 9 1 0 0 SigmoidSteepenedActivation
node 12 1 0 0 SigmoidSteepenedActivation
gene 3 1 4 5.5130980635808475 false 1 5.5130980635808475 true
gene 2 2 4 -2.746267979278531 false 2 -2.746267979278531 true
gene 3 3 4 12.457107229525452 false 3 12.457107229525452 true
gene 2 2 9 -7.901845642096688 false 10 -7.901845642096688 true
gene 2 9 4 3.484567761963543 false 11 3.484567761963543 true
gene 2 2 12 -6.790548273645257 false 18 -6.790548273645257 true
gene 2 12 4 -16.430301010711304 false 19 -16.430301010711304 true
gene 2 3 9 -9.254178839832285 false 60 -9.254178839832285 true
gene 1 12 9 2.2020992676948348 false 69 2.2020992676948348 true
gene 1 3 12 9.581347435120032 false 535 9.581347435120032 true
gene 3 1 12 2.1116242927634508 false 551 2.1116242927634508 true
gene 2 1 9 2.7770165717838977 false 581 2.7770165717838977 true
genomeend 104
