genomestart 197
trait 1 0.3764815729952554 0.07997675584160183 0.31575828663490246 0 0.23737870302267677 0 0.22972905814406036 0
trait 2 0.27627088423927754 0.6871727954794892 0.4524739963507704 0.6190599160891445 0 0.7084613994301165 0.014992785009329428 0
trait 3 0.3122908657978194 0 0 0 0 0 0 0
node 1 1 1 3 NullActivation
node 2 1 1 1 NullActivation
node 3 3 1 1 NullActivation
node 4 1 0 2 SigmoidSteepenedActivation
node 7 1 0 0 SigmoidSteepenedActivation
node 50 3 0 0 SigmoidSteepenedActivation
node 83 1 0 0 SigmoidSteepenedActivation
gene 1 1 4 -2.7415011732303394 false 1 -2.7415011732303394 true
gene 2 2 4 -2.5448662881463284 false 2 -2.5448662881463284 true
gene 3 3 4 -3.2486849928671107 false 3 -3.2486849928671107 true
gene 3 3 7 -3.404058990482398 false 6 -3.404058990482398 true
gene 2 7 4 -4.867519763279859 false 7 -4.867519763279859 true
gene 3 2 7 3.1462254497279614 false 103 3.1462254497279614 true
gene 3 1 7 4.375748916699219 false 182 4.375748916699219 true
gene 1 3 50 4.908157102041086 false 203 4.908157102041086 true
gene 3 50 4 10.78881541653653 false 204 10.78881541653653 true
gene 3 1 50 -2.3139088758858195 false 314 -2.3139088758858195 true
gene 3 2 50 5.975126515568758 false 350 5.975126515568758 true
gene 2 2 83 1 false 365 1 true
gene 2 83 4 1.5001610896362414 false 366 1.5001610896362414 true
genomeend 197
