genomestart 155
trait 1 0.07500000000000001 0.23941145124080393 0 0 0.11159114697833229 0 0 0.20827225808111327
trait 2 0.2 0 0 0 0 0 0 0
trait 3 0.3 0 0 0.16630595314032717 0 0 0 0
node 1 1 1 3 NullActivation
node 2 1 1 1 NullActivation
node 3 1 1 1 NullActivation
node 4 1 0 2 SigmoidSteepenedActivation
node 9 1 0 0 SigmoidSteepenedActivation
node 14 1 0 0 SigmoidSteepenedActivation
node 20 1 0 0 SigmoidSteepenedActivation
gene 1 1 4 -1.2701741895485286 false 1 -1.2701741895485286 true
gene 2 2 4 -3.097954104524764 false 2 -3.097954104524764 true
gene 3 3 4 -2.888713573375948 false 3 -2.888713573375948 true
gene 2 2 9 0.6126212150394751 false 10 0.6126212150394751 true
gene 2 9 4 2.1532773124714613 false 11 2.1532773124714613 true
gene 2 2 14 4.128189988444342 false 22 4.128189988444342 true
gene 2 14 4 3.219986868541775 false 23 3.219986868541775 true
gene 2 9 14 7.41680711434898 false 41 7.41680711434898 true
gene 3 3 20 -4.847682283182072 false 45 -4.847682283182072 true
gene 3 20 4 -7.944455603188943 false 46 -7.944455603188943 true
gene 1 3 14 2.3445518565518757 false 156 2.3445518565518757 true
gene 3 2 20 -5.648489357150571 false 168 -5.648489357150571 true
gene 3 3 9 4.526937352165886 false 242 4.526937352165886 true
genomeend 155
