genomestart 94
trait 1 0.1 0 0 0 0 0 0 0
trait 2 0.2 0 0 0 0 0 0 0
trait 3 0.3 0 0 0 0 0 0 0
node 1 1 1 3 SigmoidSteepenedActivation
node 2 1 1 1 SigmoidSteepenedActivation
node 3 1 1 1 SigmoidSteepenedActivation
node 4 1 1 1 SigmoidSteepenedActivation
node 5 1 1 1 SigmoidSteepenedActivation
node 6 1 0 2 SigmoidSteepenedActivation
node 7 1 0 2 SigmoidSteepenedActivation
gene 1 1 6 0.17363529448760584 false 1 0.17363529448760584 true
gene 2 2 6 -0.332823652883425 false 2 -0.332823652883425 true
gene 3 3 6 1.0494710905389257 false 3 1.0494710905389257 true
gene 1 4 6 -1.5216603880666293 false 4 -1.5216603880666293 true
gene 2 5 6 5.351053979017331 false 5 5.351053979017331 true
gene 3 1 7 1.816445103632778 false 6 1.816445103632778 true
gene 1 2 7 2.7227777831771696 false 7 2.7227777831771696 true
gene 2 3 7 2.0847239997276623 false 8 2.0847239997276623 true
gene 3 4 7 2.034639144965388 false 9 2.034639144965388 true
gene 1 5 7 3.4487306649021754 false 10 3.4487306649021754 true
gene 3 7 6 8.599801053005661 false 40 8.599801053005661 true
genomeend 94
