genomestart 153
trait 1 0.2651035814110836 0.0030069259997080144 0 0 0.014805194147599936 0.33476312238809064 0.1015732311004143 0
trait 2 0.6035454355427559 0 0 0 0.7438517481266288 0 0 0
trait 3 0.3 0.11524015743237685 0 0.10515712516197855 0 0 0 0
node 1 1 1 3 NullActivation
node 2 1 1 1 NullActivation
node 3 1 1 1 NullActivation
node 4 1 0 2 SigmoidSteepenedActivation
node 14 1 0 0 SigmoidSteepenedActivation
node 217 1 0 0 SigmoidSteepenedActivation
gene 1 1 4 -1.5666636628124468 false 1 -1.5666636628124468 true
gene 2 2 4 3.9566327388348617 false 2 3.9566327388348617 true
gene 3 3 4 -2.376443584666271 false 3 -2.376443584666271 true
gene 3 2 14 -3.5857308208507424 false 24 -3.5857308208507424 true
gene 2 14 4 7.2540183270923295 false 25 7.2540183270923295 true
gene 1 1 14 -0.3291789834388711 false 152 -0.3291789834388711 true
gene 3 3 14 2.5584869249131206 false 215 2.5584869249131206 true
gene 3 3 217 1 false 1066 0 true
gene 3 217 4 -0.8091487853302832 false 1067 0 true
genomeend 153
