genomestart 141
trait 1 0.07500000000000001 0.1724064465259528 0 0 0 0.14108223960266403 0.0045568737163010084 0
trait 2 0.15537791003687484 0.3458362222959695 0.32940565249282433 0 0 0.10619485501405745 0 0.14164160719607036
trait 3 0 0.11799291801969146 0 0.812152724586919 0 0 0.18392599501521 0.024595903066165145
node 1 1 1 3 SigmoidSteepenedActivation
node 2 1 1 1 SigmoidSteepenedActivation
node 3 1 1 1 SigmoidSteepenedActivation
node 4 1 1 1 SigmoidSteepenedActivation
node 5 1 1 1 SigmoidSteepenedActivation
node 6 1 0 2 SigmoidSteepenedActivation
node 7 1 0 2 SigmoidSteepenedActivation
gene 1 1 6 1.17631163733786 false 1 1.17631163733786 true
gene 2 2 6 -2.7754096438924445 false 2 -2.7754096438924445 true
gene 3 3 6 -3.0745493140474336 false 3 -3.0745493140474336 true
gene 1 4 6 -1.1358266788794564 false 4 -1.1358266788794564 true
gene 2 5 6 -4.680320911745105 false 5 -4.680320911745105 true
gene 3 1 7 -3.204169950469747 false 6 -3.204169950469747 true
gene 1 2 7 -2.1126855712488406 false 7 -2.1126855712488406 true
gene 2 3 7 -1.3872730660564738 false 8 -1.3872730660564738 true
gene 3 4 7 0.13873139513915625 false 9 0.13873139513915625 true
gene 1 5 7 0.5401346128022585 false 10 0.5401346128022585 true
gene 1 6 6 2.9374737886526834 true 34 2.9374737886526834 true
gene 3 6 7 1.5479048633305772 false 96 1.5479048633305772 true
genomeend 141
