genomestart 57
trait 1 0 0 0 0 0 0.8348114664441846 0 0
trait 2 0.2 0 0 0 0 0 0 0
trait 3 0.3 0 0 0 0 0 0 0
node 1 1 1 3 SigmoidSteepenedActivation
node 2 1 1 1 SigmoidSteepenedActivation
node 3 1 1 1 SigmoidSteepenedActivation
node 4 1 1 1 SigmoidSteepenedActivation
node 5 1 1 1 SigmoidSteepenedActivation
node 6 1 0 2 SigmoidSteepenedActivation
node 7 1 0 2 SigmoidSteepenedActivation
gene 1 1 6 0.9175188519639644 false 1 0.9175188519639644 true
gene 2 2 6 -4.752302464816828 false 2 -4.752302464816828 true
gene 3 3 6 -3.3619452077544976 false 3 -3.3619452077544976 true
gene 1 4 6 -4.840361075128216 false 4 -4.840361075128216 true
gene 2 5 6 -0.8807150437446257 false 5 -0.8807150437446257 true
gene 3 1 7 -2.5461766731031545 false 6 -2.5461766731031545 true
gene 1 2 7 0.508354055837973 false 7 0.508354055837973 true
gene 2 3 7 -3.0687296020645833 false 8 -3.0687296020645833 true
gene 2 4 7 -3.9289143123725077 false 9 -3.9289143123725077 true
gene 2 5 7 -0.2994973809530043 false 10 -0.2994973809530043 true
gene 1 6 7 -3.191655529041788 false 31 -3.191655529041788 true
genomeend 57
