genomestart 6
trait 1 0.1 0 0 0 0 0 0 0
trait 2 0.2 0 0 0 0 0 0 0
trait 3 0.3 0 0 0 0 0 0 0
node 1 0 1 3 SigmoidSteepenedActivation
node 2 0 1 1 SigmoidSteepenedActivation
node 3 0 1 1 SigmoidSteepenedActivation
node 4 0 1 1 SigmoidSteepenedActivation
node 5 0 1 1 SigmoidSteepenedActivation
node 6 0 0 2 SigmoidSteepenedActivation
node 7 0 0 2 SigmoidSteepenedActivation
gene 1 1 6 1.0640318822534784 false 1 1.0640318822534784 true
gene 2 2 6 0.7846200357451979 false 2 0.7846200357451979 true
gene 3 3 6 0.5959438369218935 false 3 0.5959438369218935 true
gene 1 4 6 -0.9161884864566985 false 4 -0.9161884864566985 true
gene 2 5 6 -0.5700912938247044 false 5 -0.5700912938247044 true
gene 3 1 7 0.4844586632720699 false 6 0.4844586632720699 true
gene 1 2 7 0.9380531425469467 false 7 0.9380531425469467 true
gene 2 3 7 0.7510464548215492 false 8 0.7510464548215492 true
gene 3 4 7 -0.5337908927622915 false 9 -0.5337908927622915 true
gene 1 5 7 -0.017283718077632994 false 10 -0.017283718077632994 true
genomeend 6
