genomestart 163
trait 1 0.11583613987532472 0 0 0 0 0 0.08264439965488775 0
trait 2 0.3655955430798275 0.7086809150280802 0 0.38059587103410536 0.6648626651420328 0.10135804769537833 0.6938835340778787 0.48877039144789064
trait 3 0.43627767442086796 0.09667118781027416 0.15151442667682366 0.0003961216845583524 0 0.03452288413963332 0 0.1615497507329865
node 1 1 1 3 NullActivation
node 2 1 1 1 NullActivation
node 3 1 1 1 NullActivation
node 4 1 0 2 SigmoidSteepenedActivation
node 8 2 0 0 SigmoidSteepenedActivation
node 9 1 0 0 SigmoidSteepenedActivation
node 18 2 0 0 SigmoidSteepenedActivation
node 20 1 0 0 SigmoidSteepenedActivation
node 35 1 0 0 SigmoidSteepenedActivation
node 61 1 0 0 SigmoidSteepenedActivation
node 93 2 0 0 SigmoidSteepenedActivation
gene 1 1 4 8.59013345849467 false 1 8.59013345849467 true
gene 2 2 4 -3.1898422824441397 false 2 -3.1898422824441397 true
gene 3 3 4 5.664461559913117 false 3 5.664461559913117 true
gene 2 2 8 -3.03286861048454 false 8 -3.03286861048454 true
gene 2 8 4 -2.622424532601778 false 9 -2.622424532601778 true
gene 3 2 18 -1.7045007995084527 false 46 -1.7045007995084527 true
gene 2 2 20 1.4799486031669864 false 54 1.4799486031669864 true
gene 2 20 4 -0.9336534291896477 false 55 -0.9336534291896477 true
gene 3 2 35 -1.260471731097267 false 152 -1.260471731097267 true
gene 3 35 4 1.268509339997546 false 153 1.268509339997546 true
gene 2 9 35 -0.4586777660627169 false 311 -0.4586777660627169 true
gene 2 2 61 -1.7860108106631678 false 335 -1.7860108106631678 true
gene 3 61 4 -10.23008998871641 false 336 -10.23008998871641 true
gene 2 3 61 4.088409573984581 false 494 4.088409573984581 true
gene 2 35 93 -5.890641279999827 false 558 -5.890641279999827 true
gene 3 93 4 -3.430031569372596 false 559 -3.430031569372596 true
gene 3 8 61 0.5422313768526164 false 802 0.5422313768526164 true
gene 3 20 18 1.3777998408260197 false 954 1.3777998408260197 true
genomeend 163
