genomestart 135
trait 1 0.1 0.27218865711857715 0 0 0.9060873061781837 0.08439758924114019 0 0.26801475886985376
trait 2 0.2 0 0.3040182647286331 0 0.4884008011536591 0.2063695411114737 0 0
trait 3 0.3 0 0 0 0 0 0 0
node 1 1 1 3 NullActivation
node 2 1 1 1 NullActivation
node 3 1 1 1 NullActivation
node 4 1 0 2 SigmoidSteepenedActivation
node 8 1 0 0 SigmoidSteepenedActivation
node 20 3 0 0 SigmoidSteepenedActivation
node 49 1 0 0 SigmoidSteepenedActivation
gene 1 1 4 -4.029103977433849 false 1 -4.029103977433849 true
gene 2 2 4 1.6049225235253337 false 2 1.6049225235253337 true
gene 3 3 4 -1.5570683128162006 false 3 -1.5570683128162006 true
gene 2 2 8 2.2185560464711696 false 8 2.2185560464711696 true
gene 2 8 4 0.643133505662984 false 9 0.643133505662984 true
gene 3 1 8 -1.6932464445064077 false 30 -1.6932464445064077 true
gene 3 3 8 1.852208706133249 false 37 1.852208706133249 true
gene 3 2 20 -6.975419310752001 false 56 -6.975419310752001 true
gene 1 20 8 -3.1908258230509268 false 57 -3.1908258230509268 true
gene 2 2 49 1.8497095951497045 false 209 1.8497095951497045 true
gene 2 49 8 -1.657590946558435 false 210 -1.657590946558435 true
gene 2 49 4 6.321792192333596 false 256 6.321792192333596 true
gene 3 20 4 8.989914199998585 false 423 8.989914199998585 true
gene 1 49 20 0.2962237160092771 false 458 0.2962237160092771 true
gene 2 3 49 -5.481102702804625 false 472 -5.481102702804625 true
gene 3 1 20 -1.7521201739930514 false 590 -1.7521201739930514 true
gene 2 3 20 4.816841923379283 false 649 4.816841923379283 true
gene 3 1 49 -1.7582810715994457 false 670 -1.7582810715994457 true
genomeend 135
